{"weights": [[[[[0.28624221682548523, -0.2503386437892914, 0.13648846745491028, -0.2602793276309967, 0.191992849111557, -0.17943838238716125, -0.2679894268512726, 0.34820857644081116], [0.29039159417152405, 0.023613333702087402, 0.0536954402923584, -0.1087188720703125, -0.004606097936630249, -0.12806379795074463, -0.12891694903373718, -0.24008724093437195], [-0.13028410077095032, -0.05478551983833313, -0.0339813232421875, -0.27034059166908264, -0.1580812633037567, 0.3484289348125458, -0.11117985844612122, 0.20705166459083557]], [[-0.3479684889316559, -0.13770988583564758, -0.06796082854270935, 0.30832621455192566, -0.3426559865474701, -0.3105715811252594, 0.21989575028419495, -0.2806936800479889], [-0.12722554802894592, 0.14931395649909973, 0.3072343170642853, 0.07260704040527344, -0.10886600613594055, 0.11294493079185486, 0.2081179916858673, 0.11347293853759766], [-0.011016637086868286, 0.12351331114768982, -0.09595724940299988, 0.3589646518230438, 0.0585077702999115, -0.016148477792739868, 0.06706508994102478, 0.19830909371376038]]], [[[-0.2194410264492035, -0.08396324515342712, -0.3617002069950104, -0.3348366320133209, 0.18136027455329895, 0.034198373556137085, 0.2145691215991974, 0.23497274518013], [0.03415161371231079, -0.25892582535743713, -0.12887024879455566, 0.29227742552757263, 0.15093305706977844, -0.10299259424209595, -0.2951132357120514, -0.1592467725276947], [-0.1944294273853302, 0.09769362211227417, 0.1350802481174469, -0.04415011405944824, -0.13236287236213684, -0.09224209189414978, -0.3060661852359772, 0.09162476658821106]], [[-0.07095259428024292, 0.3505455553531647, -0.2734152376651764, -0.22829535603523254, -0.3542509377002716, 0.16605964303016663, -0.1640366017818451, -0.09771713614463806], [-0.28921833634376526, 0.3439413011074066, -0.23513904213905334, 0.1874239146709442, -0.3315124809741974, 0.08084443211555481, 0.08058443665504456, 0.17095115780830383], [-0.1465008556842804, -0.1335085928440094, 0.2113538682460785, -0.13537165522575378, -0.3012142479419708, 0.19445529580116272, 0.19307979941368103, 0.14908775687217712]]]], [[[[0.0, 0.0, 0.0, 0.0, 0.0, 0.0, 0.0, 0.0]]]], [[[[0.27197980880737305, 0.547477126121521], [0.1895086169242859, -0.12259417772293091], [0.4066445827484131, 0.5018784999847412], [-0.5473109483718872, -0.5948342084884644], [0.32089126110076904, 0.39083123207092285], [-0.09589868783950806, -0.5646408796310425], [-0.5546407699584961, -0.36661195755004883], [0.5126570463180542, -0.7207852602005005]]]], [[[[0.0, 0.0]]]]], "model_type": "Sequential", "descriptors": [{"layer": "Input2D", "batch": 1, "channel": 3, "height": 12, "width": 12}, {"layer": "Convolution2D", "padding_vl": 0, "stride_vl": 2, "stride_hz": 2, "kernel_num": 8, "padding_hz": 0, "kernel_height": 2, "kernel_width": 2}, {"layer": "Bias2D", "units": 8}, {"layer": "ReLu"}, {"layer": "Dropout", "rate": 0.8}, {"layer": "Dense2D", "units": 2}, {"layer": "Bias2D", "units": 2}]}