{"weights": [[[[[-0.10481798648834229, 0.02400285005569458, -0.37454038858413696, 0.08028146624565125, -0.3447638750076294, -0.11826780438423157, 0.15329080820083618, 0.18171244859695435]], [[0.2627072334289551, -0.0029858052730560303, -0.28924107551574707, -0.06215447187423706, -0.3254902958869934, -0.12922391295433044, -0.07951924204826355, -0.13917756080627441]]], [[[-0.1938559114933014, -0.3668673634529114, -0.36220377683639526, -0.029508650302886963, -0.20837783813476562, 0.19770324230194092, -0.2534269094467163, 0.026460915803909302]], [[-0.0426231324672699, 0.3298835754394531, 0.24874836206436157, -0.034746766090393066, 0.37694329023361206, -0.23827698826789856, -0.2847274839878082, -0.22982440888881683]]]], [[[[0.0, 0.0, 0.0, 0.0, 0.0, 0.0, 0.0, 0.0]]]], [[[[-0.16329577565193176, -0.22781847417354584], [0.26231107115745544, -0.13666334748268127], [-0.037930816411972046, -0.20790128409862518], [0.1118331253528595, 0.07062709331512451], [0.3671185076236725, -0.3803662359714508], [-0.4135099947452545, 0.29979345202445984], [0.17867568135261536, 0.17766723036766052], [-0.1293996274471283, 0.23789182305335999], [0.20044931769371033, 0.26096293330192566], [0.3872511684894562, -0.15334489941596985], [0.372896283864975, 0.19880154728889465], [-0.39929747581481934, -0.11712384223937988], [-0.16239246726036072, 0.3092241585254669], [-0.4080905616283417, 0.33764925599098206], [0.07639667391777039, 0.04592335224151611], [-0.3231506943702698, 0.2859880030155182], [0.07350227236747742, -0.31072577834129333], [-0.3221346139907837, 0.15471771359443665], [-0.34359610080718994, 0.30131223797798157], [-0.3011975586414337, 0.3371035158634186], [0.009051471948623657, 0.3655948340892792], [-0.2574688196182251, -0.25485995411872864], [-0.023040950298309326, 0.04057943820953369], [0.33901891112327576, -0.1779627948999405], [-0.10651123523712158, -0.3922808766365051], [-0.29117363691329956, 0.3316677510738373], [-0.37561294436454773, 0.166325181722641], [-0.1606869101524353, -0.1738879680633545], [0.17422160506248474, -0.3394416570663452], [0.3053194582462311, 0.17465177178382874], [-0.1224660575389862, 0.33554646372795105], [0.0041918158531188965, 0.18466612696647644]]]], [[[[0.0, 0.0]]]]], "descriptors": [{"batch": 1, "channel": 1, "height": 4, "layer": "Input2D", "width": 4}, {"stride_vl": 2, "kernel_width": 2, "stride_hz": 2, "layer": "Convolution2D", "kernel_num": 8, "kernel_height": 2, "padding_hz": 0, "padding_vl": 0}, {"units": 8, "layer": "Bias2D"}, {"layer": "ReLu"}, {"rate": 0.8, "layer": "Dropout"}, {"layer": "Flatten"}, {"units": 2, "layer": "Dense2D"}, {"units": 2, "layer": "Bias2D"}], "model_type": "Sequential"}