{"model_type": "Sequential", "descriptors": [{"layer": "Input2D", "height": 4, "width": 4, "channel": 1, "batch": 1}, {"layer": "Convolution2D", "kernel_height": 2, "kernel_width": 2, "kernel_num": 8, "stride_hz": 2, "stride_vl": 2, "padding_hz": 0, "padding_vl": 0}, {"layer": "Bias2D", "units": 8}, {"layer": "ReLu"}, {"layer": "Dropout", "rate": 0.2}, {"layer": "Flatten"}, {"layer": "Dense2D", "units": 2}, {"layer": "Bias2D", "units": 2}], "weights": [[[[[-0.33878201246261597, -0.32730409502983093, -0.015367478132247925, 0.24022358655929565, -0.12028834223747253, 0.11918777227401733, -0.1778102070093155, -0.303976446390152]], [[-0.2952863872051239, 0.14812403917312622, 0.12922585010528564, 0.26390814781188965, -0.29621514678001404, -0.09557351469993591, 0.27493250370025635, -0.09700751304626465]]], [[[-0.10113456845283508, 0.1949084997177124, -0.05899888277053833, 0.037182748317718506, -0.2913687825202942, 0.36562973260879517, -0.3188667893409729, 0.06452834606170654]], [[0.06991830468177795, -0.10612595081329346, 0.21697980165481567, 0.21217083930969238, -0.1499459147453308, -0.3154963254928589, 0.3670136332511902, 0.2626986503601074]]]], [[[[0.0, 0.0, 0.0, 0.0, 0.0, 0.0, 0.0, 0.0]]]], [[[[0.4148730933666229, 0.29031792283058167], [-0.22681331634521484, -0.21924923360347748], [0.1712276041507721, 0.15115097165107727], [-0.12880361080169678, 0.12361761927604675], [0.21033689379692078, -0.18744075298309326], [0.4079119861125946, -0.315975546836853], [0.11590883135795593, -0.1265963912010193], [-0.09493422508239746, -0.27595359086990356], [0.04866492748260498, -0.22732721269130707], [-0.15017646551132202, 0.2534272372722626], [0.26618465781211853, 0.0676540732383728], [0.37026742100715637, 0.27750667929649353], [0.29838505387306213, 0.3671707212924957], [-0.23704743385314941, 0.14400187134742737], [-0.28949955105781555, -0.08143821358680725], [-0.18704794347286224, -0.12335371971130371], [0.18693193793296814, 0.16323038935661316], [-0.3925706148147583, -0.15674147009849548], [0.35024479031562805, -0.29607388377189636], [0.12433907389640808, -0.3081128001213074], [-0.09630152583122253, -0.08881348371505737], [0.06738936901092529, 0.3473597466945648], [-0.006465166807174683, 0.36758145689964294], [0.15065011382102966, 0.04488745331764221], [0.3219163119792938, -0.36423924565315247], [-0.3981173634529114, 0.21502617001533508], [-0.2199275940656662, -0.1079249382019043], [0.11795732378959656, 0.027215152978897095], [-0.18764245510101318, 0.3600873649120331], [-0.25876522064208984, 0.338288277387619], [-0.1472495198249817, -0.17550697922706604], [0.32220831513404846, 0.21733686327934265]]]], [[[[0.0, 0.0]]]]]}