{"descriptors": [{"height": 4, "width": 4, "layer": "Input2D", "channel": 1, "batch": 1}, {"kernel_width": 2, "kernel_height": 2, "layer": "Convolution2D", "kernel_num": 8, "stride_vl": 2, "padding_hz": 0, "padding_vl": 0, "stride_hz": 2}, {"units": 8, "layer": "Bias2D"}, {"layer": "ReLu"}, {"layer": "Dropout", "rate": 0.8}, {"layer": "Flatten"}, {"units": 2, "layer": "Dense2D"}, {"units": 2, "layer": "Bias2D"}], "weights": [[[[[0.3385968804359436, -0.22080738842487335, -0.3663768768310547, -0.16771452128887177, 0.20150774717330933, 0.04271900653839111, -0.21661755442619324, -0.18733705580234528]], [[-0.38302555680274963, 0.041654378175735474, 0.1277141571044922, 0.019862651824951172, 0.09622585773468018, -0.38348421454429626, -0.11533045768737793, 0.24656391143798828]]], [[[-0.11006206274032593, 0.10368889570236206, -0.36011219024658203, 0.2878665328025818, 0.12918508052825928, 0.11456084251403809, -0.06652885675430298, 0.008572012186050415]], [[0.27617233991622925, -0.35100114345550537, -0.13705217838287354, 0.3813443183898926, 0.004754751920700073, 0.04778164625167847, -0.09832191467285156, 0.3650491237640381]]]], [[[[0.0, 0.0, 0.0, 0.0, 0.0, 0.0, 0.0, 0.0]]]], [[[[0.2640204131603241, -0.0014428496360778809], [-0.3797551691532135, 0.28188440203666687], [0.3472627103328705, -0.08423435688018799], [-0.3862471878528595, 0.36053267121315], [0.07605543732643127, -0.037750035524368286], [0.10402676463127136, -0.38558444380760193], [0.25092241168022156, 0.07185789942741394], [0.2858720123767853, 0.2010776698589325], [-0.06397724151611328, 0.40542200207710266], [-0.1444915235042572, 0.07538250088691711], [0.2498047649860382, -0.20320376753807068], [-0.41194507479667664, -0.24167242646217346], [0.35369744896888733, -0.3790678083896637], [-0.01297178864479065, -0.27986064553260803], [-0.0022678375244140625, -0.1344875693321228], [-0.21550171077251434, -0.18063436448574066], [-0.4062361717224121, 0.3683190643787384], [-0.3939252197742462, 0.06751894950866699], [-0.16527295112609863, 0.3628595173358917], [0.33849039673805237, 0.1736389696598053], [-0.10677123069763184, -0.4155995547771454], [-0.21244846284389496, -0.08858153223991394], [-0.23380178213119507, 0.14995041489601135], [0.2045205533504486, 0.09926292300224304], [0.07918068766593933, 0.18118682503700256], [0.013761013746261597, 0.28812381625175476], [-0.1488884687423706, -0.3401718735694885], [-0.028835654258728027, -0.3582445979118347], [0.294111043214798, -0.37051770091056824], [0.08296838402748108, 0.23054811358451843], [-0.1576690375804901, 0.24425473809242249], [-0.20277300477027893, 0.415645033121109]]]], [[[[0.0, 0.0]]]]], "model_type": "Sequential"}