{"model_type": "Sequential", "weights": [[[[[0.3559045195579529, -0.1355748474597931, 0.24447286128997803, -0.37211111187934875, -0.07822468876838684, -0.1394517719745636, 0.3054330348968506, 0.2847890853881836]], [[0.27589112520217896, 0.3304504156112671, -0.20373889803886414, 0.010350972414016724, 0.32661330699920654, -0.10947582125663757, 0.3405930995941162, -0.21162539720535278]]], [[[-0.2365216761827469, -0.3815469741821289, -0.38025104999542236, 0.2476634979248047, 0.15938913822174072, -0.1450730860233307, -0.328258752822876, -0.044431209564208984]], [[0.2961549162864685, -0.15400952100753784, -0.0702267587184906, 0.20940512418746948, -0.23119331896305084, 0.3251059055328369, 0.2657257318496704, -0.1494687795639038]]]], [[[[0.0, 0.0, 0.0, 0.0, 0.0, 0.0, 0.0, 0.0]]]], [[[[-0.1608300507068634, -0.3989041745662689], [0.41452595591545105, 0.33243224024772644], [-0.2981363832950592, 0.22997745871543884], [0.024530857801437378, 0.3424711525440216], [-0.3007164001464844, 0.1994325816631317], [-0.25928834080696106, 0.3387160003185272], [-0.18081523478031158, 0.361384779214859], [-0.24640700221061707, 0.3399259150028229], [0.40709343552589417, 0.06120443344116211], [-0.2544269561767578, -0.05205729603767395], [-0.04787018895149231, 0.3583742082118988], [0.015658050775527954, 0.13457730412483215], [-0.13524845242500305, -0.3802420496940613], [-0.2449192851781845, -0.2577628493309021], [-0.030814260244369507, -0.1460438370704651], [0.3843483030796051, -0.3171256184577942], [0.07016566395759583, 0.09681925177574158], [-0.19784103333950043, -0.38165372610092163], [-0.36509305238723755, -0.1186400055885315], [-0.3592894375324249, -0.07142353057861328], [0.13901397585868835, 0.34534141421318054], [0.19514533877372742, -0.07088109850883484], [-0.0649833083152771, -0.036704421043395996], [-0.04265797138214111, -0.31261351704597473], [-0.23120544850826263, 0.3269486129283905], [-0.2383982390165329, 0.046411216259002686], [-0.1268763244152069, 0.4038507640361786], [0.25003156065940857, 0.23761454224586487], [0.20334789156913757, 0.21543613076210022], [-0.30679306387901306, -0.39251214265823364], [-0.05663761496543884, 0.1713002622127533], [0.2543364465236664, -0.059332430362701416]]]], [[[[0.0, 0.0]]]]], "descriptors": [{"channel": 1, "height": 4, "batch": 1, "layer": "Input2D", "width": 4}, {"stride_hz": 2, "kernel_width": 2, "layer": "Convolution2D", "padding_vl": 0, "kernel_height": 2, "padding_hz": 0, "stride_vl": 2, "kernel_num": 8}, {"units": 8, "layer": "Bias2D"}, {"layer": "ReLu"}, {"rate": 0.8, "layer": "Dropout"}, {"layer": "Flatten"}, {"units": 2, "layer": "Dense2D"}, {"units": 2, "layer": "Bias2D"}]}