{"model_type": "Sequential", "descriptors": [{"layer": "Input2D", "height": 4, "width": 4, "channel": 1, "batch": 1}, {"layer": "Convolution2D", "kernel_height": 2, "kernel_width": 2, "kernel_num": 8, "stride_hz": 2, "stride_vl": 2, "padding_hz": 0, "padding_vl": 0}, {"layer": "Bias2D", "units": 8}, {"layer": "ReLu"}, {"layer": "Dropout", "rate": 0.2}, {"layer": "Flatten"}, {"layer": "Dense2D", "units": 2}, {"layer": "Bias2D", "units": 2}], "weights": [[[[[0.07898446917533875, 0.10242736339569092, 0.39050978422164917, -0.3521931767463684, 0.39740288257598877, 0.37700748443603516, 0.10942810773849487, -0.4022771716117859]], [[0.34618163108825684, 0.11289191246032715, 0.07917049527168274, -0.20921754837036133, -0.3326552212238312, -0.0036887526512145996, 0.12780070304870605, 0.07348102331161499]]], [[[-0.17493203282356262, 0.17451536655426025, 0.018851250410079956, 0.12568145990371704, 0.1612260341644287, -0.06754833459854126, -0.26096445322036743, 0.30543190240859985]], [[-0.3345448672771454, 0.029486358165740967, 0.285563588142395, -0.13230443000793457, -0.36057907342910767, -0.016154229640960693, 0.13862675428390503, -0.13747286796569824]]]], [[[[0.0, 0.0, 0.0, 0.0, 0.0, 0.0, 0.0, 0.0]]]], [[[[0.18024727702140808, 0.3910253942012787], [-0.18013548851013184, -0.3342215418815613], [0.05221414566040039, 0.11338093876838684], [0.30804643034935, 0.28821393847465515], [0.18733134865760803, 0.2846432030200958], [-0.3749801516532898, -0.18484391272068024], [0.2709215581417084, 0.20405980944633484], [0.048861533403396606, -0.05398920178413391], [-0.16317859292030334, 0.3136499226093292], [0.09576037526130676, 0.20406362414360046], [-0.28973400592803955, 0.025093555450439453], [-0.2861792743206024, 0.2860419452190399], [0.1253471076488495, 0.13479575514793396], [-0.35264909267425537, -0.4077205955982208], [0.3434044420719147, 0.36100462079048157], [0.15440908074378967, 0.14776882529258728], [0.0842980444431305, -0.26636165380477905], [-0.08286213874816895, 0.24128994345664978], [-0.27463430166244507, -0.2455296367406845], [-0.4131819009780884, 0.13561692833900452], [-0.18813803791999817, 0.1165952980518341], [-0.2011447697877884, -0.18752147257328033], [-0.18926027417182922, 0.19279560446739197], [0.09685251116752625, -0.1658347249031067], [-0.029069244861602783, 0.10531076788902283], [0.2365032136440277, 0.06838619709014893], [-0.023833781480789185, 0.16410747170448303], [-0.33613261580467224, 0.13514450192451477], [-0.2534909248352051, -0.3304024934768677], [-0.25397807359695435, 0.06484630703926086], [0.3646312654018402, -0.22425822913646698], [-0.36204493045806885, 0.38770613074302673]]]], [[[[0.0, 0.0]]]]]}