{"weights": [[[[[0.083120197057724, -0.09619352221488953, 0.2876555919647217, 0.1115153431892395, -0.10258904099464417, 0.22784268856048584, 0.2830445170402527, -0.2853192687034607]], [[0.1148446798324585, 0.40079349279403687, 0.2955000400543213, -0.2560504674911499, -0.18740743398666382, -0.1767912209033966, 0.38743501901626587, -0.25025784969329834]]], [[[-0.2005242556333542, 0.1143641471862793, 0.0040277838706970215, -0.30589139461517334, -0.28256046772003174, 0.21823662519454956, 0.3721114993095398, -0.1786145716905594]], [[0.2972078323364258, -0.31952136754989624, -0.4010159969329834, 0.06954872608184814, 0.34845489263534546, -0.23603013157844543, 0.04543599486351013, 0.3202632665634155]]]], [[[[0.0, 0.0, 0.0, 0.0, 0.0, 0.0, 0.0, 0.0]]]], [[[[-0.20464211702346802, 0.3894630968570709], [-0.26930853724479675, -0.37967514991760254], [0.20179536938667297, 0.3013502061367035], [-0.17164047062397003, 0.35061344504356384], [0.3992680609226227, -0.22479216754436493], [0.003733009099960327, 0.06258919835090637], [-0.08420231938362122, -0.3853999674320221], [-0.3807832896709442, -0.2165944129228592], [-0.16638708114624023, -0.2618202865123749], [-0.3498341143131256, 0.2665475308895111], [0.33080801367759705, -0.4132196605205536], [0.1877046525478363, 0.18783316016197205], [0.23288503289222717, -0.2755476236343384], [0.3231119215488434, -0.14972296357154846], [-0.06355717778205872, 0.2233276665210724], [-0.1805507242679596, -0.014375358819961548], [0.13650861382484436, -0.05470472574234009], [0.3471428453922272, 0.24136558175086975], [-0.007594108581542969, -0.3712823987007141], [0.046528398990631104, 0.30907389521598816], [0.3160994350910187, 0.38022342324256897], [0.35494425892829895, 0.0257987380027771], [-0.31353694200515747, -0.370823472738266], [-0.1142125129699707, 0.3468341529369354], [0.09545370936393738, 0.11046180129051208], [0.12231829762458801, -0.17525358498096466], [0.060438841581344604, -0.16711661219596863], [0.2934381663799286, 0.1004548966884613], [-0.24316595494747162, 0.2868920862674713], [-0.04807952046394348, 0.32504573464393616], [-0.3066951036453247, 0.17880019545555115], [0.30587103962898254, -0.07345610857009888]]]], [[[[0.0, 0.0]]]]], "model_type": "Sequential", "descriptors": [{"batch": 1, "height": 4, "layer": "Input2D", "width": 4, "channel": 1}, {"kernel_height": 2, "padding_hz": 0, "stride_hz": 2, "kernel_num": 8, "stride_vl": 2, "layer": "Convolution2D", "padding_vl": 0, "kernel_width": 2}, {"units": 8, "layer": "Bias2D"}, {"layer": "ReLu"}, {"rate": 0.8, "layer": "Dropout"}, {"layer": "Flatten"}, {"units": 2, "layer": "Dense2D"}, {"units": 2, "layer": "Bias2D"}]}