{"model_type": "Sequential", "descriptors": [{"layer": "Input2D", "height": 4, "width": 4, "channel": 1, "batch": 1}, {"layer": "Convolution2D", "kernel_height": 2, "kernel_width": 2, "kernel_num": 8, "stride_hz": 2, "stride_vl": 2, "padding_hz": 0, "padding_vl": 0}, {"layer": "Bias2D", "units": 8}, {"layer": "ReLu"}, {"layer": "Dropout", "rate": 0.2}, {"layer": "Flatten"}, {"layer": "Dense2D", "units": 2}, {"layer": "Bias2D", "units": 2}], "weights": [[[[[0.25338101387023926, -0.12724411487579346, 0.24259424209594727, -0.3547773063182831, -0.18040941655635834, 0.02154216170310974, 0.054995059967041016, -0.20310905575752258]], [[0.2622159719467163, 0.088844895362854, 0.28328031301498413, -0.3209443986415863, -0.17199157178401947, -0.3072219491004944, 0.3773950934410095, 0.29045772552490234]]], [[[0.32648998498916626, 0.27724504470825195, -0.24582943320274353, -0.03055235743522644, -0.017039090394973755, -0.12324213981628418, -0.03551843762397766, -0.12768250703811646]], [[-0.2824922204017639, -0.22681863605976105, 0.029930204153060913, 0.019211679697036743, 0.141007661819458, 0.3562142252922058, -0.16992372274398804, -0.07806232571601868]]]], [[[[0.0, 0.0, 0.0, 0.0, 0.0, 0.0, 0.0, 0.0]]]], [[[[-0.4061264991760254, 0.02510005235671997], [-0.06251487135887146, 0.05219981074333191], [-0.08351245522499084, -0.25919240713119507], [-0.1876259297132492, -0.007887482643127441], [0.3030174672603607, 0.39417049288749695], [0.17652955651283264, -0.18402522802352905], [0.08656486868858337, 0.12886658310890198], [0.2892734706401825, 0.3156844675540924], [0.1262315809726715, 0.12956610321998596], [0.356385737657547, -0.17237511277198792], [-0.28014397621154785, 0.31056609749794006], [-0.005032837390899658, 0.19519904255867004], [-0.25492724776268005, -0.007968604564666748], [-0.16728347539901733, 0.03675198554992676], [-0.009797334671020508, 0.20464161038398743], [-0.2931583523750305, 0.09234991669654846], [-0.4079012870788574, 0.08613011240959167], [-0.12004798650741577, -0.13007870316505432], [-0.118012934923172, 0.07687431573867798], [0.3770385682582855, 0.3928576409816742], [-0.20833776891231537, -0.25302761793136597], [-0.11330369114875793, 0.12752774357795715], [-0.3093399107456207, -0.14022427797317505], [0.3313107192516327, 0.33343663811683655], [-0.1390564739704132, -0.3074721097946167], [0.29126229882240295, 0.15473178029060364], [-0.011943578720092773, 0.321476012468338], [0.1282634437084198, -0.39508312940597534], [-0.41610774397850037, 0.16545912623405457], [-0.2966562807559967, -0.4164317548274994], [-0.37215855717658997, 0.262524276971817], [0.18042561411857605, -0.39748525619506836]]]], [[[[0.0, 0.0]]]]]}