{"model_type": "Sequential", "descriptors": [{"layer": "Input2D", "height": 4, "width": 4, "channel": 1, "batch": 1}, {"layer": "Convolution2D", "kernel_height": 2, "kernel_width": 2, "kernel_num": 8, "stride_hz": 2, "stride_vl": 2, "padding_hz": 0, "padding_vl": 0}, {"layer": "Bias2D", "units": 8}, {"layer": "ReLu"}, {"layer": "Dropout", "rate": 0.2}, {"layer": "Flatten"}, {"layer": "Dense2D", "units": 2}, {"layer": "Bias2D", "units": 2}], "weights": [[[[[0.10884696245193481, 0.31102490425109863, -0.00012186169624328613, -0.037383049726486206, 0.084159255027771, 0.23508793115615845, -0.15673828125, -0.3397568166255951]], [[-0.1934106945991516, 0.21690624952316284, -0.09620550274848938, 0.14443320035934448, 0.06379348039627075, 0.04079228639602661, 0.016756713390350342, -0.3679013252258301]]], [[[-0.292339026927948, -0.3005499243736267, -0.11209020018577576, 0.3833337426185608, -0.04587331414222717, -0.1705581396818161, -0.3087792992591858, 0.235440194606781]], [[-0.23531687259674072, 0.237440288066864, -0.3389744460582733, -0.40623611211776733, 0.13218313455581665, -0.0721789002418518, 0.3654530644416809, 0.050198137760162354]]]], [[[[0.0, 0.0, 0.0, 0.0, 0.0, 0.0, 0.0, 0.0]]]], [[[[0.36224284768104553, -0.4118230640888214], [0.306001216173172, -0.354992151260376], [0.3883959949016571, -0.3182794451713562], [0.3257082998752594, 0.25164803862571716], [0.31574746966362, -0.10158956050872803], [-0.3658435344696045, 0.1712069809436798], [0.014690548181533813, -0.26958996057510376], [-0.3254707157611847, -0.40239080786705017], [0.31307122111320496, -0.278683602809906], [0.37566474080085754, 0.30396297574043274], [0.21500083804130554, -0.41922810673713684], [0.2765215337276459, -0.3307775855064392], [0.26682254672050476, 0.018089354038238525], [0.04466018080711365, 0.417176216840744], [0.17344406247138977, -0.03904193639755249], [-0.3704351782798767, -0.4064014256000519], [-0.0023442506790161133, -0.3631182014942169], [0.09302875399589539, 0.281031996011734], [-0.22409598529338837, -0.16783684492111206], [-0.4034547507762909, -0.04065597057342529], [0.3956001102924347, -0.1816401183605194], [0.28768453001976013, 0.39514103531837463], [-0.29279908537864685, 0.2815464437007904], [0.40983840823173523, 0.24745753407478333], [0.33345553278923035, 0.2334493100643158], [-0.23047229647636414, 0.3334677517414093], [0.21886733174324036, -0.27020081877708435], [0.3644901216030121, 0.1428491771221161], [-0.3091984987258911, 0.21041980385780334], [-0.3477559983730316, 0.25636008381843567], [0.08495375514030457, -0.18674646317958832], [-0.12702924013137817, 0.12122932076454163]]]], [[[[0.0, 0.0]]]]]}