{"model_type": "Sequential", "descriptors": [{"layer": "Input2D", "channel": 1, "height": 4, "width": 4, "batch": 1}, {"stride_vl": 2, "kernel_height": 2, "kernel_width": 2, "padding_hz": 0, "layer": "Convolution2D", "stride_hz": 2, "padding_vl": 0, "kernel_num": 8}, {"layer": "Bias2D", "units": 8}, {"layer": "ReLu"}, {"layer": "Dropout", "rate": 0.8}, {"layer": "Flatten"}, {"layer": "Dense2D", "units": 2}, {"layer": "Bias2D", "units": 2}], "weights": [[[[[-0.24898333847522736, 0.40692222118377686, 0.33759719133377075, -0.10831812024116516, -0.2153848111629486, 0.40577244758605957, 0.2882291078567505, 0.14513224363327026]], [[-0.0581035315990448, 0.3525063991546631, -0.021661579608917236, -0.2481001317501068, -0.187227264046669, 0.17759740352630615, 0.38373035192489624, -0.25340336561203003]]], [[[-0.36453932523727417, 0.3858145475387573, 0.39897608757019043, 0.09105175733566284, 0.11453014612197876, 0.0116843581199646, 0.28904831409454346, 0.40110456943511963]], [[-0.23664109408855438, -0.17364449799060822, -0.19391323626041412, -0.29051604866981506, -0.014521926641464233, 0.10052233934402466, -0.2895268201828003, -0.2567104697227478]]]], [[[[0.0, 0.0, 0.0, 0.0, 0.0, 0.0, 0.0, 0.0]]]], [[[[0.04773837327957153, -0.036374688148498535], [-0.18065299093723297, 0.24529984593391418], [-0.11800271272659302, 0.31063351035118103], [-0.07490155100822449, 0.31715574860572815], [0.2550451457500458, 0.12333211302757263], [0.2205621898174286, -0.04881906509399414], [-0.1730286180973053, -0.09517678618431091], [0.2260442078113556, 0.0025177299976348877], [-0.03095194697380066, -0.10777899622917175], [0.24446949362754822, -0.04623112082481384], [-0.09286147356033325, -0.3612321615219116], [-0.29393184185028076, 0.12853708863258362], [0.0793871283531189, 0.031303614377975464], [-0.359566867351532, -0.2195553183555603], [0.19509628415107727, 0.06584274768829346], [0.2490515410900116, 0.2724083364009857], [0.21773269772529602, 0.16678622364997864], [0.03180268406867981, -0.4021008610725403], [0.30536481738090515, -0.14062181115150452], [0.06615704298019409, -0.26496946811676025], [-0.3065637946128845, 0.28177300095558167], [0.022664964199066162, 0.3084268867969513], [-0.29399776458740234, -0.1091201901435852], [0.3909141719341278, -0.32341161370277405], [-0.3139989674091339, -0.1442459523677826], [-0.1914084255695343, 0.17986884713172913], [-0.331203430891037, -0.06805968284606934], [-0.36266016960144043, 0.3893539011478424], [-0.3888953924179077, 0.25399962067604065], [0.015640437602996826, -0.025209933519363403], [-0.11447891592979431, 0.21305271983146667], [-0.388251394033432, 0.25174978375434875]]]], [[[[0.0, 0.0]]]]]}