{"descriptors": [{"layer": "Input2D", "width": 4, "height": 4, "channel": 1, "batch": 1}, {"layer": "Convolution2D", "kernel_width": 2, "padding_hz": 0, "stride_hz": 2, "padding_vl": 0, "stride_vl": 2, "kernel_num": 8, "kernel_height": 2}, {"layer": "Bias2D", "units": 8}, {"layer": "ReLu"}, {"layer": "Dropout", "rate": 0.8}, {"layer": "Flatten"}, {"layer": "Dense2D", "units": 2}, {"layer": "Bias2D", "units": 2}], "weights": [[[[[-0.17080935835838318, -0.3834882974624634, -0.2694888710975647, 0.10773330926895142, -0.16857944428920746, 0.2936743497848511, 0.4079141616821289, -0.19556917250156403]], [[0.07950696349143982, -0.020910561084747314, 0.006345778703689575, 0.31528347730636597, 0.05553770065307617, 0.017974853515625, -0.39853203296661377, 0.2854868173599243]]], [[[0.11833387613296509, -0.2522628903388977, 0.3956148624420166, -0.12191540002822876, 0.36213934421539307, 0.07311630249023438, -0.21375954151153564, -0.14276042580604553]], [[-0.10620111227035522, -0.030938774347305298, -0.13021963834762573, 0.019244879484176636, 0.16526806354522705, 0.2073969841003418, 0.08293789625167847, 0.286101758480072]]]], [[[[0.0, 0.0, 0.0, 0.0, 0.0, 0.0, 0.0, 0.0]]]], [[[[-0.09464496374130249, -0.04152652621269226], [-0.28153717517852783, 0.2963200509548187], [0.05531337857246399, -0.14562809467315674], [0.33336833119392395, -0.08715459704399109], [0.09220555424690247, -0.35911765694618225], [0.1695038378238678, 0.04848983883857727], [0.23014649748802185, 0.38216081261634827], [-0.06515398621559143, -0.16048690676689148], [0.06696829199790955, -0.12160903215408325], [0.06790605187416077, -0.2866511344909668], [-0.09612506628036499, 0.3015928566455841], [-0.07491347193717957, 0.33028528094291687], [-0.12425664067268372, 0.40501996874809265], [-0.04373493790626526, -0.2921575903892517], [0.16319933533668518, 0.005921602249145508], [-0.011023640632629395, 0.3478970229625702], [0.008617609739303589, 0.17605945467948914], [-0.12607136368751526, 0.15196707844734192], [-0.02040514349937439, -0.3386263847351074], [0.2623703181743622, 0.41025295853614807], [0.21043381094932556, -0.32635238766670227], [0.18844148516654968, -0.17098744213581085], [0.40093573927879333, -0.02267959713935852], [0.1441393792629242, 0.35875651240348816], [-0.059896498918533325, -0.09845620393753052], [0.11612758040428162, 0.13057687878608704], [-0.13234183192253113, -0.13701629638671875], [0.16446229815483093, 0.184224933385849], [-0.2778920829296112, -0.052369773387908936], [-0.3558237552642822, 0.29298755526542664], [0.3130292594432831, -0.07894453406333923], [-0.32599493861198425, 0.07666930556297302]]]], [[[[0.0, 0.0]]]]], "model_type": "Sequential"}